conv1.weight:
[[[[ 0.22599418  0.32472786  0.10209299 -0.26069796 -0.        ]
   [ 0.2648916   0.11991341  0.         -0.2862472   0.10271706]
   [-0.17461619  0.          0.15778066 -0.          0.10230533]
   [-0.09409612  0.13496296  0.34150568  0.3193103  -0.14555427]
   [ 0.          0.          0.28714457  0.         -0.169342  ]]]


 [[[-0.14143181 -0.17756963 -0.06022177  0.09546264  0.        ]
   [ 0.12057854  0.12620303  0.26944894  0.25815347  0.09299264]
   [-0.06513134  0.          0.29025665  0.          0.1678328 ]
   [ 0.26364714  0.23031047 -0.08315802 -0.12750463 -0.        ]
   [ 0.          0.          0.          0.078925   -0.20211   ]]]


 [[[ 0.2545857   0.09920879  0.18817747  0.09165629  0.21145894]
   [ 0.22975296  0.3450168   0.33069405  0.36938688  0.17943951]
   [-0.20445532  0.11327086 -0.          0.          0.14040254]
   [-0.19739996 -0.4176968  -0.3867712  -0.34729993 -0.2911239 ]
   [-0.21724875 -0.37789336 -0.25184816 -0.23553641 -0.08254248]]]


 [[[ 0.21721871  0.         -0.3331616  -0.31398588 -0.3048287 ]
   [ 0.24193844 -0.11922441 -0.32024705 -0.4451032  -0.18337339]
   [ 0.          0.14946459 -0.20409584 -0.26501694 -0.11146608]
   [ 0.23770332  0.1908783   0.3196759   0.08963766  0.22432642]
   [ 0.23711267  0.17551875  0.3163327   0.49039045  0.46609506]]]


 [[[ 0.18992354  0.24967322  0.1146962  -0.28908232 -0.18958344]
   [ 0.30287334  0.07701567 -0.12722123 -0.3896098  -0.        ]
   [ 0.22268233 -0.         -0.07730488 -0.495773    0.        ]
   [ 0.20490818  0.         -0.44580436 -0.33757392  0.        ]
   [ 0.26862326 -0.10855527 -0.3026921  -0.16495961 -0.07278173]]]


 [[[-0.24290606  0.         -0.          0.24049579  0.1944539 ]
   [-0.20278248 -0.12089757 -0.14129622  0.30952224 -0.        ]
   [-0.22181709 -0.          0.          0.21183176  0.2728588 ]
   [-0.17271882  0.10510376  0.09688039  0.08911925  0.21870108]
   [ 0.17452556 -0.          0.16249098  0.18662181  0.        ]]]]

conv1.bias:
[-0.03134615  0.01943076  0.16977584  0.00518833  0.23359214 -0.05819479]

conv2.weight:
[[[[-0.08010922 -0.          0.04295775  0.09323656  0.        ]
   [ 0.          0.07756821  0.08967526  0.         -0.        ]
   [-0.10903589  0.10217573  0.16558401  0.08197432 -0.05590785]
   [-0.          0.          0.09700132  0.06468838  0.07542585]
   [-0.03172463 -0.11641879 -0.03028712  0.          0.05652073]]

  [[-0.05900655 -0.03575314  0.09439021  0.09688198  0.12161426]
   [-0.09447874  0.07092734  0.15334316  0.08190426  0.        ]
   [ 0.04706108  0.08718671  0.05920622 -0.03184815 -0.11726157]
   [-0.06629195  0.05520856  0.04351527 -0.05411077  0.03228965]
   [-0.          0.          0.          0.         -0.04822572]]

  [[ 0.14589308 -0.04716147 -0.26400086 -0.09059698  0.0355225 ]
   [ 0.0588225  -0.26901725 -0.39467955 -0.04467331  0.15889673]
   [-0.18940437 -0.16996609 -0.26024482 -0.08291777  0.09636851]
   [-0.22395277 -0.         -0.03764633  0.06338049  0.1245845 ]
   [-0.16107282 -0.0652082   0.          0.04270303 -0.0465215 ]]

  [[ 0.          0.          0.          0.117262   -0.03662052]
   [ 0.15576541  0.         -0.20254514 -0.10329937  0.06666254]
   [-0.05790706 -0.3807623  -0.14794801  0.11849797  0.0467224 ]
   [-0.28646338 -0.31724975  0.06446821  0.19513144 -0.06705005]
   [-0.24178343 -0.14263794  0.03333662  0.16027813 -0.04357204]]

  [[ 0.12730177  0.02755769 -0.1018528  -0.16884269 -0.17178625]
   [ 0.04138925 -0.12267786 -0.03346396  0.0526841  -0.07026608]
   [ 0.02998174  0.          0.          0.16246407 -0.06042801]
   [ 0.06635545  0.06489567 -0.0705926  -0.06459855  0.        ]
   [ 0.12937644  0.04684663 -0.18724023 -0.0861669   0.        ]]

  [[-0.09317965 -0.          0.08169441  0.13301082  0.        ]
   [-0.08632044  0.13058935  0.          0.0449894  -0.        ]
   [-0.03728694  0.14746112 -0.         -0.08177254 -0.0654715 ]
   [-0.04999708  0.05532018  0.04134575 -0.         -0.11050045]
   [-0.          0.05103456  0.05527422  0.         -0.08263906]]]


 [[[-0.1088618  -0.09164567 -0.14953585 -0.10901992 -0.04939139]
   [-0.05931125  0.          0.04873275 -0.0495756  -0.08732827]
   [-0.          0.12930654 -0.          0.          0.04468324]
   [ 0.04462513  0.07928406  0.13119891 -0.         -0.        ]
   [ 0.04117623  0.07125639  0.14502284 -0.04367864 -0.1063079 ]]

  [[-0.17858455 -0.17399004 -0.07483295 -0.03801003 -0.03194154]
   [-0.12670735 -0.          0.06088827 -0.02869656 -0.07805882]
   [ 0.04460351  0.          0.06999612  0.04209564 -0.03785875]
   [ 0.11039744  0.15490818  0.05232672  0.          0.071472  ]
   [ 0.06167955  0.10551022  0.         -0.07962456 -0.13963655]]

  [[-0.13201018 -0.17691961 -0.207314   -0.06920981  0.18598057]
   [-0.23402466 -0.21713193 -0.24779645 -0.15352899  0.        ]
   [-0.31684262 -0.24763687  0.11280794  0.15547608  0.10985626]
   [-0.31424704 -0.24302338  0.1205925   0.08502103  0.246472  ]
   [-0.36213204 -0.1399021  -0.0596334   0.12160604  0.21702494]]

  [[ 0.0439683   0.          0.          0.03757871 -0.07064631]
   [ 0.1571201   0.10124066  0.19695885  0.18708669  0.12391334]
   [ 0.06551623  0.         -0.03279277 -0.04175037  0.054295  ]
   [-0.1609847  -0.1078236   0.12653263 -0.03248312  0.06831057]
   [-0.35106733  0.12130142  0.12682816 -0.05042743 -0.16790804]]

  [[ 0.18119071  0.14952779  0.03300917 -0.         -0.05187769]
   [-0.03300112 -0.         -0.1787679  -0.13739422 -0.08579789]
   [-0.07520909 -0.         -0.14097634 -0.17272097 -0.        ]
   [-0.          0.14008932 -0.         -0.09824813 -0.08863537]
   [ 0.0322751   0.10749235  0.          0.04238677  0.        ]]

  [[-0.07179677 -0.0915805  -0.         -0.07311778 -0.05163916]
   [ 0.080053   -0.          0.1050102  -0.03176802 -0.        ]
   [ 0.08226813  0.13576896  0.03551498 -0.09275094 -0.16814645]
   [ 0.14088368  0.06912594 -0.         -0.04121604 -0.12029245]
   [ 0.19414388  0.06315096 -0.17951897 -0.1646051  -0.06439199]]]


 [[[ 0.08628803  0.         -0.10087807 -0.10765732 -0.17955819]
   [ 0.15702984  0.13826664  0.09178372 -0.06304971 -0.        ]
   [-0.06164724 -0.0362778   0.06609661  0.04732273  0.07660566]
   [-0.         -0.07625535  0.          0.          0.11749925]
   [ 0.0938009  -0.         -0.12367149 -0.03304054  0.        ]]

  [[ 0.          0.05611635 -0.         -0.19265482 -0.20585673]
   [ 0.12688115  0.          0.05691293  0.03769145  0.        ]
   [ 0.03721819  0.02802856  0.08572181  0.0921985   0.        ]
   [-0.04926642 -0.10010598 -0.06043421  0.         -0.02806777]
   [-0.07350708 -0.09522948  0.04846792  0.04554671 -0.06033065]]

  [[-0.         -0.14123088 -0.11719679 -0.14762932 -0.23249657]
   [ 0.2562232   0.08664417 -0.05534367 -0.13377513 -0.06502768]
   [ 0.27860647  0.29334462  0.17508306  0.07671655  0.        ]
   [ 0.07276748  0.          0.14800513  0.          0.        ]
   [-0.03496144 -0.          0.         -0.04448291 -0.06966484]]

  [[ 0.22762628  0.25200075  0.12284741 -0.         -0.12296192]
   [ 0.          0.04889051  0.13919748  0.0902585   0.045368  ]
   [-0.08283697 -0.15596437  0.          0.06229563  0.        ]
   [ 0.06754294 -0.04424245 -0.14909782 -0.05959792 -0.05528483]
   [ 0.09135105 -0.03364958 -0.          0.04959176  0.        ]]

  [[-0.101517   -0.0590512   0.04038446  0.         -0.0701222 ]
   [-0.26375192 -0.25297046 -0.09269858  0.          0.        ]
   [-0.21465144 -0.29413095 -0.0878586  -0.04878167 -0.12356728]
   [ 0.04849187  0.         -0.05279285  0.0566389  -0.08229292]
   [ 0.09319415  0.18821698  0.16039085  0.07562259 -0.0274658 ]]

  [[-0.         -0.12487018 -0.21417661 -0.11448164 -0.10222828]
   [ 0.          0.         -0.04589184 -0.          0.03274647]
   [-0.05882769  0.         -0.07442217 -0.04441082 -0.05284754]
   [-0.13414648  0.06915674  0.09837204  0.09458452 -0.11889302]
   [ 0.          0.          0.         -0.         -0.        ]]]


 ...


 [[[-0.          0.          0.02848854 -0.07741538 -0.0893571 ]
   [ 0.0783814   0.13463758  0.05076331  0.03460918 -0.094629  ]
   [ 0.06553248  0.06160717 -0.08563849 -0.03795312 -0.07940937]
   [ 0.         -0.06904293 -0.12006676 -0.11430308 -0.11509794]
   [-0.10369883 -0.07103283 -0.11471304 -0.05987135  0.03627385]]

  [[ 0.12173057  0.04759124  0.04266295  0.02778797 -0.        ]
   [ 0.0991791   0.11099128  0.12250734 -0.02968979 -0.        ]
   [ 0.12248369  0.11849053 -0.05819839 -0.05081467 -0.10028373]
   [-0.0500303  -0.08474965 -0.22997642 -0.10881571  0.        ]
   [-0.04468383 -0.11577348 -0.14387941  0.06045015  0.13947578]]

  [[-0.21731544 -0.23708439 -0.1788601  -0.15534282  0.        ]
   [-0.28190958  0.0414546   0.0515982  -0.          0.        ]
   [ 0.24827382  0.09422016  0.11406777  0.12317143 -0.09635969]
   [ 0.2154861   0.12475625 -0.04791938 -0.16143647 -0.22424732]
   [-0.06960209 -0.1481421  -0.24443166 -0.14247596 -0.10793401]]

  [[-0.12328441  0.04459197  0.          0.          0.        ]
   [-0.         -0.         -0.06745163 -0.1594465  -0.04484994]
   [-0.2820831  -0.1797582  -0.11770942  0.         -0.        ]
   [-0.10948659 -0.10547131  0.07764631  0.08347142  0.        ]
   [-0.0641231  -0.07305148  0.         -0.         -0.14590949]]

  [[-0.          0.06551137  0.12918654  0.1015657   0.18977086]
   [ 0.06117471  0.04692778  0.14774217  0.22247401  0.25424448]
   [-0.07204171  0.12209038  0.14662793  0.0834545   0.04489812]
   [ 0.03053825  0.03976491  0.06711268 -0.06643786 -0.07295963]
   [ 0.0826792  -0.          0.10221013 -0.0681944   0.        ]]

  [[ 0.16017786  0.06696676  0.11955317  0.05915773  0.04482598]
   [ 0.10456192  0.06202459  0.05338376 -0.10716228 -0.        ]
   [ 0.07888819 -0.06730541 -0.10926081 -0.08857478  0.        ]
   [-0.         -0.05414307 -0.21857964  0.          0.06419176]
   [-0.0283703  -0.10385592  0.          0.06754195  0.04989992]]]


 [[[ 0.0702332   0.06174914  0.          0.13637826 -0.0574823 ]
   [-0.06260226  0.          0.13719742  0.06708328 -0.        ]
   [-0.          0.12400305  0.14211522  0.         -0.11787286]
   [ 0.21163012 -0.          0.         -0.05139252 -0.09425825]
   [ 0.11248554  0.11028537  0.03489086 -0.18576215 -0.17280395]]

  [[ 0.06352859  0.11678211 -0.          0.         -0.09994058]
   [-0.0581697  -0.05427593 -0.          0.05550091  0.        ]
   [-0.07085159  0.13311252  0.05750573 -0.         -0.08082756]
   [ 0.13554321  0.14945999  0.14783575 -0.14023982 -0.04900694]
   [ 0.2309881   0.19275258 -0.05697844 -0.19718607 -0.15858133]]

  [[ 0.          0.05649382  0.         -0.09707969 -0.15474178]
   [-0.05535381 -0.20883197 -0.3220827  -0.1865904   0.        ]
   [-0.09400219 -0.42971182 -0.09759568  0.04903835  0.05653181]
   [-0.38020408 -0.12917648  0.0293247   0.         -0.05156716]
   [-0.12982853 -0.         -0.         -0.         -0.13465138]]

  [[ 0.02749316  0.07318351  0.03718317  0.          0.        ]
   [ 0.04021337  0.04777557  0.07309713 -0.          0.04797854]
   [ 0.         -0.09073174 -0.17144522 -0.         -0.05791786]
   [ 0.11288791 -0.45801473 -0.03250899  0.08912916 -0.04876446]
   [-0.21971461 -0.05937243  0.12787594  0.10516512 -0.07369228]]

  [[-0.31698957 -0.23967174 -0.05572069  0.05980469  0.16019598]
   [-0.26638606 -0.21513003  0.07229329  0.19081433  0.11834115]
   [-0.3716285  -0.11178052  0.0991352   0.15515408  0.14624   ]
   [-0.25267702  0.12778968  0.2916501   0.16220568 -0.08029135]
   [ 0.11942196  0.37951338  0.16676322  0.1000825  -0.06301691]]

  [[ 0.07667752 -0.04199468 -0.         -0.09278519 -0.03420896]
   [ 0.          0.          0.12878637  0.         -0.        ]
   [ 0.11445209  0.17703994  0.1588938  -0.         -0.08151577]
   [ 0.1821914   0.13019133 -0.04485364 -0.14336804  0.04704008]
   [ 0.15458253  0.06979378 -0.19496845 -0.16859505 -0.09199981]]]


 [[[-0.10371623  0.07886586  0.1119994  -0.06961013 -0.        ]
   [-0.          0.07596441  0.08717123  0.15606284 -0.10755494]
   [ 0.         -0.05741122  0.07340986  0.2133735   0.12791556]
   [ 0.         -0.12889238 -0.          0.05639163  0.20594466]
   [ 0.04938542 -0.08040281  0.          0.03562792  0.04414926]]

  [[-0.         -0.          0.03437126  0.04996615  0.        ]
   [ 0.08333036  0.04370003  0.08378363 -0.03254539  0.03607033]
   [-0.0697031   0.04068393  0.          0.05268725  0.        ]
   [-0.11614013 -0.07174291  0.          0.08756166 -0.04737851]
   [-0.         -0.06280211  0.          0.06924678  0.        ]]

  [[ 0.07790234 -0.03823617 -0.27300403 -0.12222026 -0.16122194]
   [ 0.17002693  0.12876254 -0.10335428 -0.26793036 -0.17566797]
   [ 0.          0.10040746  0.03458609 -0.19707187 -0.23912276]
   [-0.          0.04535867  0.03651447 -0.05374379 -0.        ]
   [-0.0561011  -0.          0.05122664  0.10724221  0.11236178]]

  [[ 0.03833397  0.09104469  0.2514855   0.0832754  -0.10805702]
   [-0.05132783 -0.17335513  0.04309015 -0.03313186 -0.09463488]
   [-0.         -0.27042413 -0.23997639  0.06292211  0.25869107]
   [ 0.09156225  0.05050891 -0.22110808 -0.          0.19013289]
   [ 0.07064366  0.         -0.07814305 -0.07256791 -0.04089256]]

  [[-0.04747305 -0.2955253  -0.13922717  0.06927321  0.06918266]
   [-0.24315634 -0.35862634 -0.29568288 -0.          0.10549308]
   [-0.12401408 -0.18777049 -0.30887213 -0.          0.1287385 ]
   [ 0.         -0.08830343 -0.08899824 -0.04147539 -0.        ]
   [-0.12807873 -0.10009384  0.12415575 -0.         -0.        ]]

  [[ 0.04729006  0.0894383  -0.         -0.05618545 -0.08291266]
   [ 0.06551103  0.11924569  0.04563775 -0.12781061 -0.09550101]
   [-0.10575622  0.          0.14843771  0.12111998 -0.16118655]
   [-0.06627738 -0.0488895   0.11572769  0.1424905  -0.0640755 ]
   [-0.03000541 -0.13916986  0.04642384  0.04130165 -0.14076339]]]]

conv2.bias:
[-0.01206992 -0.03107868 -0.00217677  0.04002757  0.00646528  0.03210006
  0.06351023 -0.03047086 -0.02081277  0.10711408  0.02519312 -0.01060729
 -0.0751591   0.03211106  0.02868917  0.02103282]

fc1.weight:
[[ 0.08220915  0.05495729  0.08647662 ...  0.0356844   0.0368955
  -0.06619584]
 [ 0.00638197 -0.04759382  0.04665261 ...  0.0615701   0.06495794
  -0.10770733]
 [-0.0012342   0.10586015 -0.02362386 ... -0.0528657  -0.07088134
  -0.07928012]
 ...
 [ 0.0976775   0.07505576  0.05177841 ... -0.01570675 -0.0577105
  -0.00860418]
 [-0.06998612 -0.09483486  0.03552009 ...  0.11748565  0.0179367
  -0.06585118]
 [ 0.04010511  0.08166014  0.07414471 ...  0.05962455  0.04168413
   0.04917601]]

fc1.bias:
[-0.0208231  -0.06416946  0.05767167 -0.07741819 -0.08190838  0.0238472
  0.05041696  0.02415213  0.03975955  0.05863696 -0.00346152 -0.06968569
  0.02344201  0.0061889  -0.01009454  0.04478634  0.00737976  0.04458475
 -0.01308316 -0.09413913 -0.05030606  0.08853615  0.04195898  0.01370888
 -0.04014405  0.06288943  0.01135086  0.00658678  0.04008637 -0.047383
 -0.02215733  0.01009329  0.00821298  0.10826413 -0.02095862 -0.0800238
 -0.02441884  0.00966288  0.07527779 -0.06381732  0.00102851 -0.08565508
  0.06837509 -0.02542894  0.00300312  0.03331922 -0.02411666  0.04611739
 -0.06242691 -0.07380551 -0.07217193 -0.05967259 -0.04376535  0.01073384
 -0.05947261 -0.03265608  0.08580784 -0.00330951 -0.01045743  0.07144473
  0.03981835  0.01435482  0.11323503  0.03022053  0.03258627 -0.0809266
  0.03561624  0.01481394  0.02459453 -0.03691363 -0.00121609  0.00662996
 -0.0088478   0.00373657  0.06597245  0.03457338  0.02596996 -0.01622738
  0.00123112 -0.02825341  0.00624529  0.09257936 -0.03740587 -0.03165312
  0.06796993  0.02956326  0.07631282  0.01550012 -0.06807233 -0.04597252
  0.09604833  0.01574801 -0.0512728   0.07888538 -0.02314475 -0.06393435
  0.05601664 -0.06332969  0.07885549 -0.05886989  0.05459933  0.10636088
 -0.01271597  0.10430334  0.04391554 -0.03731761  0.0661428  -0.01879536
  0.12871978  0.04474769 -0.04112862  0.07960237  0.02007873 -0.05406572
  0.00615867 -0.02622251 -0.05650173  0.02906225 -0.04021689 -0.00449433]

fc2.weight:
[[ 0.16811652 -0.05716534  0.12547453 ...  0.19711357  0.02003204
  -0.04309784]
 [-0.05973637 -0.00566117 -0.08208008 ... -0.09728278  0.07923613
  -0.03192939]
 [-0.01698234  0.05472945  0.08180822 ...  0.03044602  0.05461366
   0.14723784]
 ...
 [ 0.18511687  0.13166215  0.08476766 ...  0.1061306   0.03341711
  -0.01831674]
 [-0.06531967 -0.01409069 -0.11041886 ... -0.04355821 -0.09956596
  -0.07861324]
 [ 0.05528223 -0.06492934  0.06004668 ...  0.04220794 -0.05662631
   0.05305515]]

fc2.bias:
[ 0.06647688  0.04809295 -0.09344067  0.06205898 -0.03140099  0.10754921
  0.09594768  0.01076446 -0.0069246   0.01156815 -0.06810631  0.05426033
 -0.09554945 -0.06918702  0.0770526   0.03223041 -0.10651337  0.05876236
 -0.06797329  0.13405263 -0.02880406 -0.01766215  0.13302867 -0.08299191
  0.03590942  0.02127515  0.01052471  0.01230617  0.05777854 -0.0359559
 -0.08283983 -0.0053691  -0.01977113  0.01387774  0.01579778  0.00861674
  0.06423457  0.1520006   0.01069628 -0.09130698  0.1512772   0.15737051
  0.08593673  0.00436618 -0.05749512 -0.01391476  0.03240503  0.03516833
 -0.02053798  0.00242523  0.03093406  0.09140016  0.00791189 -0.10051487
  0.04527299  0.00982879 -0.06134293  0.00812302 -0.04408669  0.0301478
  0.03774809 -0.00925007  0.11458264  0.07082536 -0.03053206 -0.07117486
 -0.0175113   0.05772951 -0.00085099  0.08419707  0.08034712  0.12973335
 -0.00657974 -0.07478955  0.0452071   0.10147768 -0.05709866  0.06698703
 -0.03731744 -0.03743488  0.10084749  0.02350591 -0.00953055  0.02328637]

fc3.weight:
[[-1.91172548e-02 -1.04119226e-01  8.53816643e-02 -1.47577778e-01
   1.63919225e-01 -1.06601110e-02 -1.38321966e-01 -1.66034587e-02
  -7.81584084e-02  8.23972449e-02  2.94736419e-02  4.88698622e-03
   1.71157390e-01 -9.10253823e-02 -2.63261441e-02  4.22046445e-02
  -2.45291111e-03 -1.14706950e-02  4.55573462e-02 -1.13414243e-01
   3.80192697e-02 -8.90066102e-02 -5.07781431e-02  4.20367084e-02
  -6.07944727e-02  5.83775938e-02  2.67320499e-02  1.63088322e-01
  -2.96299178e-02 -9.68846828e-02  1.06743962e-01  4.95595261e-02
  -1.30884230e-01  9.86532569e-02 -3.88776585e-02  1.12066325e-02
   9.89866927e-02 -1.27801389e-01 -1.78005509e-02 -7.30306432e-02
   1.07557051e-01 -2.37293057e-02 -9.13476646e-02  8.07127878e-02
  -1.42792556e-02 -9.28348824e-02 -2.13892828e-03 -4.06645536e-02
  -8.81586820e-02 -1.36624962e-01 -3.03833298e-02 -1.82540357e-01
   7.87101611e-02 -5.62494658e-02 -2.27917403e-01  1.49867266e-01
  -9.54498872e-02  1.07594907e-01  5.04587851e-02 -1.39188364e-01
   8.79084319e-03 -1.15354359e-03  4.29268628e-02 -4.60745133e-02
  -9.65244770e-02  7.08541945e-02 -2.27899477e-02 -8.88579488e-02
   8.02630931e-02 -2.50870258e-01 -1.49925217e-01 -2.32305042e-02
  -7.49565437e-02  3.62984911e-02  1.28892571e-01 -1.54670492e-01
   1.20655239e-01 -8.06434155e-02  6.07445613e-02 -8.17057863e-02
   1.17325164e-01 -2.00307339e-01 -4.02854234e-02  6.85673626e-03]
 [ 1.61460280e-01 -4.84693833e-02 -9.80078429e-03  1.22087069e-01
  -2.12779656e-01  8.95706043e-02 -2.48583462e-02 -9.58408266e-02
  -2.53099144e-01 -1.57222375e-01 -1.89248044e-02 -1.97483413e-02
  -5.81083708e-02 -1.10247590e-01 -3.44188586e-02 -1.37677282e-01
  -1.30928203e-01  4.66178693e-02  1.35550559e-01 -1.70548499e-01
   7.08853919e-03  1.45974867e-02  1.25021130e-01  2.42618565e-02
  -6.34171665e-02 -1.31401002e-01 -7.69494772e-02 -6.32931152e-03
  -2.19179019e-01 -1.44573599e-01 -1.68495134e-01  6.55700788e-02
   9.46249589e-02  4.64761108e-02 -1.19568519e-01 -1.02960445e-01
  -5.32874204e-02  7.95709714e-02 -1.18753605e-01  2.15165261e-02
  -1.74483612e-01 -1.10660776e-01 -4.32097912e-03 -1.44249290e-01
   5.74794859e-02  1.26880795e-01  2.97341943e-02 -1.18626589e-02
   3.74091528e-02  6.21327907e-02  1.16704427e-01 -1.55585289e-01
  -1.21388204e-01  2.69851927e-02  9.20901522e-02 -3.65361609e-02
  -8.48099142e-02  1.49904400e-01  6.03537969e-02  1.46217778e-01
   1.30514771e-01 -6.24624491e-02  1.04788229e-01 -1.16074651e-01
  -1.16131932e-01  4.39490564e-02 -2.22610533e-01 -1.04742244e-01
  -8.50397628e-03  1.54143751e-01 -1.42448485e-01 -1.73620015e-01
  -3.86942253e-02  8.62622485e-02  7.73352310e-02  1.36896148e-01
  -8.33508670e-02  1.89295448e-02  9.97731686e-02  2.33210828e-02
  -6.71723261e-02  1.23432584e-01  2.19064951e-02  1.07695282e-01]
 [ 1.16606154e-01 -4.47138585e-02 -4.10886519e-02  1.68083776e-02
  -7.50333518e-02 -1.06008187e-01 -9.44463834e-02 -7.81802908e-02
   4.81705293e-02 -3.48070003e-02 -2.02619761e-01  1.40145227e-01
   7.00057298e-02  5.96201085e-02 -1.29308999e-01  9.68300700e-02
  -4.83985655e-02 -7.52214938e-02 -3.04673258e-02 -6.93806931e-02
   7.08436146e-02 -2.57635713e-02  1.17787085e-01  5.69485649e-02
   2.91057974e-02 -2.22729057e-01 -1.78775102e-01 -1.88755188e-02
   1.41403198e-01 -1.56200537e-02  3.87873277e-02  3.56505625e-02
   9.51058343e-02 -1.09906726e-01  7.90651217e-02 -2.75899284e-02
   1.01922669e-01 -5.58787845e-02 -5.26717193e-02 -3.40663344e-02
  -1.13885589e-01  4.87970794e-03  7.62196556e-02  9.68452021e-02
  -1.17483630e-03  8.10547844e-02 -8.46443027e-02  2.52708271e-02
  -7.11200163e-02  4.86770757e-02  6.33476526e-02  1.32482007e-01
   1.39801845e-01 -9.09020081e-02 -1.12862296e-01  1.50031358e-01
  -8.84981602e-02 -1.95778325e-01  1.37604447e-02  1.07767363e-03
   1.36455940e-02  5.45225032e-02  1.02774329e-01  1.55091062e-01
  -1.42025705e-02  1.22461990e-01  9.23335031e-02  1.32720068e-01
   9.33616422e-03 -1.44695580e-01 -1.46915287e-01  7.74356946e-02
  -1.65492684e-01  7.01106042e-02  7.55387768e-02 -1.35594487e-01
  -1.22868612e-01 -1.35521963e-01  2.32680943e-02 -6.54271096e-02
   1.56332143e-02  1.80152226e-02 -6.26284480e-02 -1.33605212e-01]
 [-1.16993256e-01  1.75416775e-04 -4.27861549e-02  2.35447641e-02
   2.44330522e-02 -8.96404609e-02  1.00065522e-01  3.20858788e-03
  -5.10439351e-02  1.20133504e-01 -8.73095617e-02  1.28160581e-01
  -7.76052848e-02 -8.64138752e-02  7.90058151e-02  1.08692437e-01
  -1.83423497e-02  7.55167007e-02  1.22831658e-01  2.20528357e-02
  -1.02481681e-04  4.20518294e-02 -1.08569982e-02  5.76963201e-02
   8.97183940e-02 -2.06927329e-01 -1.38171136e-01  5.67329675e-02
  -5.66206612e-02  9.41595286e-02  1.01585269e-01 -5.02518238e-03
   4.45653163e-02 -2.09843796e-02  1.01008616e-01 -1.14355959e-01
  -1.94835365e-01 -7.93293044e-02  3.10521070e-02 -4.39094231e-02
  -1.19639887e-02  1.59667641e-01 -7.74991885e-02 -1.52425379e-01
  -4.02140990e-02 -1.08482070e-01 -3.41938250e-02 -9.08198133e-02
  -2.35009566e-01  1.36718392e-01 -1.57752424e-01 -1.70482229e-02
   7.73364007e-02  3.61592360e-02 -1.34190824e-03 -1.11525610e-01
   1.79903835e-01  1.48145318e-01 -1.02911770e-01 -1.09161951e-01
   1.35297209e-01 -1.20516807e-01 -2.77804546e-02 -1.48922130e-01
  -2.32318472e-02 -3.08888853e-02 -4.91744839e-02  1.84052791e-02
   1.08487271e-01  1.49363399e-01  1.03267372e-01  4.02107947e-02
   1.55974716e-01 -5.05398698e-02  2.44139731e-02 -1.28229801e-02
  -1.01562098e-01 -4.09920029e-02 -6.57660365e-02  7.47723505e-02
  -6.65391088e-02 -1.26655936e-01  1.61416531e-02 -9.88277141e-03]
 [-5.94709739e-02  2.19647940e-02  1.54598236e-01 -4.94540557e-02
   1.01167679e-01  2.03790348e-02  9.85225067e-02  1.70620773e-02
   9.89022292e-03 -8.68943110e-02 -1.74864054e-01 -6.66381717e-02
   4.02883813e-02 -4.86007147e-02 -2.45783046e-01  1.25816777e-01
   6.16639527e-03  3.73229608e-02 -8.35865289e-02 -8.41234997e-02
  -4.84147854e-02  5.17906062e-02 -1.09188981e-01  3.26065719e-02
  -1.12934060e-01  1.77834153e-01  1.09471485e-01 -1.59617171e-01
   3.58747691e-02  1.30622894e-01  1.43250406e-01  5.36083989e-02
   6.36910796e-02  7.64076486e-02 -1.86308861e-01 -3.41912657e-02
  -1.16770402e-01 -8.07798058e-02  4.89842966e-02  2.63535082e-02
  -1.57814562e-01  4.93501732e-03 -4.64092717e-02 -5.91186583e-02
  -4.36646566e-02  2.17784837e-01  9.40929428e-02 -8.43614414e-02
   1.60416842e-01 -1.03924647e-02  1.01584546e-01  4.03750464e-02
  -1.92439407e-02  1.00413309e-02  5.89439608e-02 -2.19789576e-02
   6.30396465e-03 -6.86719045e-02 -1.93089947e-01 -6.15974441e-02
  -1.29560858e-01 -1.33805096e-01 -2.20090583e-01  4.52006124e-02
  -6.04065657e-02  1.31696180e-01  1.37199089e-02 -3.78283300e-02
  -1.02905510e-02 -2.12067124e-02 -1.40759513e-01  4.86358069e-02
  -6.86699152e-03  4.81949709e-02 -8.63491222e-02 -9.15740281e-02
   9.41951722e-02  9.33615267e-02  1.07896037e-01  4.42956463e-02
  -2.03828320e-01 -2.32585035e-02 -8.13235268e-02  1.21971369e-01]
 [ 1.28717020e-01  4.85468246e-02 -2.72697862e-02 -1.02085628e-01
  -4.82353866e-02 -9.78688598e-02 -2.22337723e-01 -1.39569238e-01
   1.21338852e-01  4.12118286e-02  1.75052807e-01 -1.39935479e-01
  -5.64900786e-02  3.22452225e-02 -8.60011056e-02 -8.96138176e-02
   8.57678801e-03  6.07906915e-02  1.18342280e-01  9.72134918e-02
  -1.45600531e-02 -5.69537841e-02  1.20114870e-01  4.79060337e-02
   9.16796029e-02  1.64204538e-02  1.06734499e-01 -2.28839330e-02
  -8.54027644e-02  1.03746049e-01 -5.48458956e-02 -1.47660986e-01
  -1.12675615e-01  9.54438820e-02  8.53294060e-02 -3.11541073e-02
   6.50811344e-02 -1.30700273e-02 -5.94715439e-02 -1.09696656e-01
   1.16519600e-01  6.95397928e-02 -7.04419166e-02 -1.45461470e-01
  -3.74112166e-02 -7.72433123e-03 -1.06894001e-02  5.27981743e-02
   1.03138141e-01 -2.14092582e-02 -1.10839466e-02  4.10914235e-03
   6.36160886e-03  1.61653515e-02 -7.85822868e-02  1.45550072e-02
  -3.04077528e-02  2.88165510e-02 -4.30227108e-02 -1.94271691e-02
  -2.04515550e-02 -2.14109108e-01 -1.62282050e-01 -1.40582442e-01
  -5.93957007e-02 -2.11365819e-01 -5.70936687e-02 -1.55309811e-01
   9.01276320e-02  1.28648549e-01  7.15708286e-02  5.70098460e-02
  -6.94793463e-02  7.33762933e-03  2.98170373e-02  8.31434801e-02
  -4.21792902e-02 -1.16868122e-02 -9.58031267e-02  2.95105074e-02
   8.04137588e-02  6.74427226e-02  4.20462824e-02  4.68876213e-02]
 [ 8.07972774e-02  1.00486428e-01  1.12224080e-01  7.36524463e-02
   1.28839225e-01 -6.19399268e-03 -1.59499586e-01 -8.90987068e-02
  -3.01324036e-02 -1.67282477e-01  2.07059190e-01 -1.19583122e-01
   1.31561249e-01  2.23143399e-02 -1.76784128e-01 -1.14547677e-01
   4.01816033e-02  8.37559104e-02 -1.87244385e-01 -2.26764455e-01
   1.80332974e-01 -3.26315165e-02 -7.01712742e-02  3.33073959e-02
   1.38341293e-01  1.48392916e-01  7.70689314e-03 -1.72115564e-01
   6.71482608e-02 -2.32554048e-01  8.34137425e-02  4.31436002e-02
  -6.60903752e-02 -1.72644570e-01 -9.43757445e-02  8.21658224e-02
   2.49547362e-02  2.60260999e-02  1.43194040e-02 -2.98127364e-02
   6.43578023e-02  7.90153444e-02 -1.72371399e-02  8.95154178e-02
   2.51432434e-02 -8.61622095e-02 -7.20364153e-02  8.09578374e-02
  -9.61779896e-03 -8.75639021e-02  3.32879759e-02  7.11257085e-02
  -7.60131255e-02 -2.22662706e-02 -9.47229564e-02 -4.50233929e-02
  -2.44512577e-02  1.45075127e-01 -1.27890259e-01 -2.10896775e-01
   1.01546399e-01 -6.75092638e-02 -3.24560761e-01 -7.30728582e-02
   8.90577957e-02 -2.70554144e-02  1.35039479e-01 -2.66437680e-02
  -5.88139519e-02 -4.33713011e-03  7.55610093e-02 -1.18493922e-01
  -8.56668279e-02 -3.28314826e-02 -1.19899549e-02 -1.21137224e-01
   8.10471773e-02  1.76504012e-02 -1.71179026e-01  1.64158060e-03
   3.85384560e-02  4.65120412e-02 -7.41269961e-02  7.05489814e-02]
 [-1.70052856e-01 -5.85067011e-02  1.21986978e-01  4.87502925e-02
  -1.10841051e-01 -8.03097934e-02 -5.68155609e-02  3.25370990e-02
   4.69463132e-02  1.57581344e-01  1.28586322e-01  1.56762987e-01
   5.93018495e-02 -6.26464039e-02  6.88467640e-03  2.45604683e-02
   2.05617249e-02  1.02400057e-01 -1.08719371e-01  4.92256805e-02
   3.21489759e-02  4.03698906e-02 -1.03702188e-01 -1.83998030e-02
  -1.65296048e-01  6.27291501e-02 -2.17808351e-01 -4.10301834e-02
   4.23357524e-02  1.06532648e-01 -3.19272429e-02 -1.06422447e-01
  -5.05385175e-02  1.11330584e-01 -3.71232927e-02 -8.94095674e-02
  -2.10324340e-02 -1.53302163e-01  2.27940492e-02 -4.67935912e-02
  -1.01424582e-01 -1.75715417e-01  3.51004712e-02 -1.80337384e-01
  -8.52526799e-02 -3.39141674e-02 -1.52416043e-02 -1.46065364e-02
   1.31126538e-01 -6.98243827e-02  9.05983448e-02  3.01217940e-02
   4.87102419e-02 -8.76922458e-02  6.44496530e-02 -1.93981677e-01
   1.65355522e-02 -9.11115110e-02  1.56235039e-01  1.23150030e-03
   5.64849749e-03  1.91628918e-01  4.72953618e-02 -3.58065404e-02
   1.89032238e-02  1.18301868e-01  6.06377572e-02 -1.25722766e-01
   1.79438815e-02  9.19188634e-02  9.14058983e-02 -7.21272156e-02
   1.06321044e-01 -1.50100663e-02  1.17528439e-01 -1.39705375e-01
   1.11045808e-01 -1.31228417e-01  1.45702437e-01 -1.63577404e-02
  -5.35310879e-02  1.32274985e-01 -1.20484486e-01 -2.44472280e-01]
 [-1.13766439e-01 -2.06954428e-03 -1.49845511e-01  7.30442926e-02
   3.78235653e-02  1.51397198e-01  7.68270940e-02 -5.93128894e-03
  -1.95960984e-01 -1.13833413e-01 -9.68014821e-02  6.43352196e-02
  -1.45957455e-01  1.88039504e-02 -1.22195102e-01  3.12504396e-02
  -1.35720056e-02  6.52153417e-02 -2.41770610e-01  1.35261849e-01
  -3.04270927e-02 -2.56201904e-03  2.85907984e-02  5.17333746e-02
  -8.14995021e-02 -6.65039793e-02  3.79597396e-02 -2.49255891e-03
   8.22606385e-02 -6.92844987e-02 -1.22682549e-01  1.08957723e-01
   4.58427332e-03 -1.14947952e-01  3.52351107e-02  1.00705460e-01
  -1.19051634e-04  1.48451343e-01 -5.39735705e-02 -8.19275230e-02
   8.22302774e-02  1.15049183e-01 -8.93770978e-02 -2.04246238e-01
  -6.20983168e-02 -2.64922548e-02 -3.62937078e-02  8.69550481e-02
  -1.51056826e-01 -2.51121055e-02  1.43770128e-01  6.76055253e-02
  -2.22718101e-02  1.33214938e-02 -3.91189978e-02 -6.79009035e-02
   8.30281805e-03  1.04845330e-01  9.22722518e-02 -2.07896724e-01
  -1.76082831e-02 -8.03646967e-02  4.15060893e-02 -1.18715167e-01
  -1.13452762e-01  1.41702369e-01 -5.14748842e-02  4.55611236e-02
   7.06461519e-02 -1.32006437e-01  1.66139528e-01  7.32112154e-02
  -5.21571636e-02 -5.01320250e-02  9.51469392e-02  8.95559639e-02
   1.05272897e-01 -1.40102794e-02 -2.08696589e-01 -1.50118815e-02
   1.38916284e-01 -1.64376080e-01 -3.93860452e-02 -6.50740489e-02]
 [-1.79631814e-01 -1.98821817e-02 -2.44723335e-02 -2.17610389e-01
  -8.34776685e-02  4.57665026e-02 -8.83427262e-02  3.86029569e-05
  -4.21766900e-02  3.16874161e-02 -1.27542436e-01 -1.04956135e-01
  -8.99566561e-02 -2.75761671e-02  7.30180070e-02  1.41853765e-01
  -9.03749019e-02  6.82432801e-02  1.15915626e-01  4.34839614e-02
  -8.38379189e-02  1.25234937e-02 -1.64634585e-01 -3.93473506e-02
   1.45444065e-01 -1.01985805e-01  6.10270649e-02  2.73159295e-02
  -1.35363238e-02  1.57722592e-01  1.09908484e-01  1.55674694e-02
   1.13898210e-01  5.98975383e-02 -1.05827868e-01  8.30654502e-02
  -1.99077323e-01  6.53235614e-03 -1.50240911e-02 -3.57414708e-02
   5.71879186e-02 -9.43765137e-03 -9.55072567e-02  5.44283167e-02
  -4.28146608e-02 -1.76568791e-01 -1.16505306e-02 -6.41367361e-02
   1.35328621e-01  1.47378638e-01 -3.43674347e-02 -1.17298953e-01
  -1.08204827e-01  7.71254301e-02  1.49103224e-01 -5.81917875e-02
   4.10863087e-02 -7.00185001e-02 -7.57908076e-02 -8.24117362e-02
  -4.30343710e-02 -1.07203815e-02  6.97204173e-02  2.13879928e-01
  -2.45747361e-02  1.13773361e-01 -6.46064058e-02 -1.49170727e-01
   5.50501235e-02 -1.36348501e-01 -1.10274972e-02  2.54042372e-02
   4.17907648e-02  1.69644821e-02 -1.73890650e-01 -8.31520632e-02
   1.39400706e-01  7.96212032e-02 -1.13814846e-01 -1.17301226e-01
   1.50049329e-01 -3.13257650e-02 -4.38363887e-02  6.25427216e-02]]

fc3.bias:
[-0.06544524  0.00065438 -0.01165061 -0.0755372  -0.12234621 -0.06433226
  0.04913888 -0.03566832  0.16308954 -0.04720866]

